digraph Tree {
node [shape=box] ;
0 [label="X[1018] <= 0.0274\ngini = 0.0389\nsamples = 2771\nvalue = [2716, 55]\nclass = 3d-model"] ;
1 [label="X[2] <= 0.2263\ngini = 0.0082\nsamples = 2677\nvalue = [2666, 11]\nclass = 3d-model"] ;
0 -> 1 [labeldistance=2.5, labelangle=45, headlabel="True"] ;
2 [label="X[1542] <= 0.2215\ngini = 0.006\nsamples = 2673\nvalue = [2665, 8]\nclass = 3d-model"] ;
1 -> 2 ;
3 [label="X[2661] <= 0.086\ngini = 0.0052\nsamples = 2672\nvalue = [2665, 7]\nclass = 3d-model"] ;
2 -> 3 ;
4 [label="X[5324] <= 0.0679\ngini = 0.0045\nsamples = 2671\nvalue = [2665, 6]\nclass = 3d-model"] ;
3 -> 4 ;
5 [label="X[1094] <= 0.0503\ngini = 0.0037\nsamples = 2670\nvalue = [2665, 5]\nclass = 3d-model"] ;
4 -> 5 ;
6 [label="X[1340] <= 0.1307\ngini = 0.003\nsamples = 2669\nvalue = [2665, 4]\nclass = 3d-model"] ;
5 -> 6 ;
7 [label="X[4883] <= 0.0886\ngini = 0.0022\nsamples = 2668\nvalue = [2665, 3]\nclass = 3d-model"] ;
6 -> 7 ;
8 [label="X[4463] <= 0.0585\ngini = 0.0015\nsamples = 2667\nvalue = [2665, 2]\nclass = 3d-model"] ;
7 -> 8 ;
9 [label="X[1157] <= 0.0312\ngini = 0.0007\nsamples = 2666\nvalue = [2665, 1]\nclass = 3d-model"] ;
8 -> 9 ;
10 [label="gini = 0.0\nsamples = 2663\nvalue = [2663, 0]\nclass = 3d-model"] ;
9 -> 10 ;
11 [label="X[1206] <= 0.0299\ngini = 0.4444\nsamples = 3\nvalue = [2, 1]\nclass = 3d-model"] ;
9 -> 11 ;
12 [label="gini = 0.0\nsamples = 2\nvalue = [2, 0]\nclass = 3d-model"] ;
11 -> 12 ;
13 [label="gini = 0.0\nsamples = 1\nvalue = [0, 1]\nclass = 3d-printing"] ;
11 -> 13 ;
14 [label="gini = 0.0\nsamples = 1\nvalue = [0, 1]\nclass = 3d-printing"] ;
8 -> 14 ;
15 [label="gini = 0.0\nsamples = 1\nvalue = [0, 1]\nclass = 3d-printing"] ;
7 -> 15 ;
16 [label="gini = 0.0\nsamples = 1\nvalue = [0, 1]\nclass = 3d-printing"] ;
6 -> 16 ;
17 [label="gini = 0.0\nsamples = 1\nvalue = [0, 1]\nclass = 3d-printing"] ;
5 -> 17 ;
18 [label="gini = 0.0\nsamples = 1\nvalue = [0, 1]\nclass = 3d-printing"] ;
4 -> 18 ;
19 [label="gini = 0.0\nsamples = 1\nvalue = [0, 1]\nclass = 3d-printing"] ;
3 -> 19 ;
20 [label="gini = 0.0\nsamples = 1\nvalue = [0, 1]\nclass = 3d-printing"] ;
2 -> 20 ;
21 [label="X[1347] <= 0.0113\ngini = 0.375\nsamples = 4\nvalue = [1, 3]\nclass = 3d-printing"] ;
1 -> 21 ;
22 [label="gini = 0.0\nsamples = 3\nvalue = [0, 3]\nclass = 3d-printing"] ;
21 -> 22 ;
23 [label="gini = 0.0\nsamples = 1\nvalue = [1, 0]\nclass = 3d-model"] ;
21 -> 23 ;
24 [label="X[2] <= 0.197\ngini = 0.498\nsamples = 94\nvalue = [50, 44]\nclass = 3d-model"] ;
0 -> 24 [labeldistance=2.5, labelangle=-45, headlabel="False"] ;
25 [label="X[3459] <= 0.0297\ngini = 0.4444\nsamples = 69\nvalue = [46, 23]\nclass = 3d-model"] ;
24 -> 25 ;
26 [label="X[5149] <= 0.0317\ngini = 0.4043\nsamples = 64\nvalue = [46, 18]\nclass = 3d-model"] ;
25 -> 26 ;
27 [label="X[2551] <= 0.0305\ngini = 0.3289\nsamples = 53\nvalue = [42, 11]\nclass = 3d-model"] ;
26 -> 27 ;
28 [label="X[4084] <= 0.0095\ngini = 0.2907\nsamples = 51\nvalue = [42, 9]\nclass = 3d-model"] ;
27 -> 28 ;
29 [label="X[2547] <= 0.0746\ngini = 0.2227\nsamples = 47\nvalue = [41, 6]\nclass = 3d-model"] ;
28 -> 29 ;
30 [label="X[1504] <= 0.0415\ngini = 0.162\nsamples = 45\nvalue = [41, 4]\nclass = 3d-model"] ;
29 -> 30 ;
31 [label="X[3370] <= 0.0448\ngini = 0.0887\nsamples = 43\nvalue = [41, 2]\nclass = 3d-model"] ;
30 -> 31 ;
32 [label="X[1206] <= 0.0884\ngini = 0.0465\nsamples = 42\nvalue = [41, 1]\nclass = 3d-model"] ;
31 -> 32 ;
33 [label="gini = 0.0\nsamples = 41\nvalue = [41, 0]\nclass = 3d-model"] ;
32 -> 33 ;
34 [label="gini = 0.0\nsamples = 1\nvalue = [0, 1]\nclass = 3d-printing"] ;
32 -> 34 ;
35 [label="gini = 0.0\nsamples = 1\nvalue = [0, 1]\nclass = 3d-printing"] ;
31 -> 35 ;
36 [label="gini = 0.0\nsamples = 2\nvalue = [0, 2]\nclass = 3d-printing"] ;
30 -> 36 ;
37 [label="gini = 0.0\nsamples = 2\nvalue = [0, 2]\nclass = 3d-printing"] ;
29 -> 37 ;
38 [label="X[828] <= 0.1125\ngini = 0.375\nsamples = 4\nvalue = [1, 3]\nclass = 3d-printing"] ;
28 -> 38 ;
39 [label="gini = 0.0\nsamples = 3\nvalue = [0, 3]\nclass = 3d-printing"] ;
38 -> 39 ;
40 [label="gini = 0.0\nsamples = 1\nvalue = [1, 0]\nclass = 3d-model"] ;
38 -> 40 ;
41 [label="gini = 0.0\nsamples = 2\nvalue = [0, 2]\nclass = 3d-printing"] ;
27 -> 41 ;
42 [label="X[5184] <= 0.0301\ngini = 0.4628\nsamples = 11\nvalue = [4, 7]\nclass = 3d-printing"] ;
26 -> 42 ;
43 [label="X[2113] <= 0.0298\ngini = 0.2188\nsamples = 8\nvalue = [1, 7]\nclass = 3d-printing"] ;
42 -> 43 ;
44 [label="gini = 0.0\nsamples = 7\nvalue = [0, 7]\nclass = 3d-printing"] ;
43 -> 44 ;
45 [label="gini = 0.0\nsamples = 1\nvalue = [1, 0]\nclass = 3d-model"] ;
43 -> 45 ;
46 [label="gini = 0.0\nsamples = 3\nvalue = [3, 0]\nclass = 3d-model"] ;
42 -> 46 ;
47 [label="gini = 0.0\nsamples = 5\nvalue = [0, 5]\nclass = 3d-printing"] ;
25 -> 47 ;
48 [label="X[4261] <= 0.0089\ngini = 0.2688\nsamples = 25\nvalue = [4, 21]\nclass = 3d-printing"] ;
24 -> 48 ;
49 [label="X[501] <= 0.1272\ngini = 0.1588\nsamples = 23\nvalue = [2, 21]\nclass = 3d-printing"] ;
48 -> 49 ;
50 [label="gini = 0.0\nsamples = 21\nvalue = [0, 21]\nclass = 3d-printing"] ;
49 -> 50 ;
51 [label="gini = 0.0\nsamples = 2\nvalue = [2, 0]\nclass = 3d-model"] ;
49 -> 51 ;
52 [label="gini = 0.0\nsamples = 2\nvalue = [2, 0]\nclass = 3d-model"] ;
48 -> 52 ;
}